digraph Tree {
node [shape=box] ;
0 [label="y_std_dev <= 1.224\nentropy = 0.992\nsamples = 919\nvalue = [508, 411]"] ;
1 [label="y_max <= 4.11\nentropy = 0.789\nsamples = 652\nvalue = [498, 154]"] ;
0 -> 1 [labeldistance=2.5, labelangle=45, headlabel="True"] ;
2 [label="y_min <= -4.82\nentropy = 0.58\nsamples = 578\nvalue = [498, 80]"] ;
1 -> 2 ;
3 [label="entropy = 0.0\nsamples = 55\nvalue = [0, 55]"] ;
2 -> 3 ;
4 [label="entropy = 0.277\nsamples = 523\nvalue = [498, 25]"] ;
2 -> 4 ;
5 [label="entropy = 0.0\nsamples = 74\nvalue = [0, 74]"] ;
1 -> 5 ;
6 [label="z_velocity <= 7.051\nentropy = 0.23\nsamples = 267\nvalue = [10, 257]"] ;
0 -> 6 [labeldistance=2.5, labelangle=-45, headlabel="False"] ;
7 [label="x_max <= 8.843\nentropy = 0.076\nsamples = 217\nvalue = [2, 215]"] ;
6 -> 7 ;
8 [label="entropy = 0.0\nsamples = 211\nvalue = [0, 211]"] ;
7 -> 8 ;
9 [label="entropy = 0.918\nsamples = 6\nvalue = [2, 4]"] ;
7 -> 9 ;
10 [label="y_velocity <= 1.097\nentropy = 0.634\nsamples = 50\nvalue = [8, 42]"] ;
6 -> 10 ;
11 [label="entropy = 0.0\nsamples = 8\nvalue = [8, 0]"] ;
10 -> 11 ;
12 [label="entropy = 0.0\nsamples = 42\nvalue = [0, 42]"] ;
10 -> 12 ;
}